<?xml version="1.0"?>
<opencv_storage>
<cascade>
  <stageType>BOOST</stageType>
  <featureType>HAAR</featureType>
  <height>24</height>
  <width>18</width>
  <stageParams>
    <boostType>GAB</boostType>
    <minHitRate>9.9500000476837158e-01</minHitRate>
    <maxFalseAlarm>5.0000000000000000e-01</maxFalseAlarm>
    <weightTrimRate>9.4999999999999996e-01</weightTrimRate>
    <maxDepth>1</maxDepth>
    <maxWeakCount>100</maxWeakCount></stageParams>
  <featureParams>
    <maxCatCount>0</maxCatCount>
    <featSize>1</featSize>
    <mode>BASIC</mode></featureParams>
  <stageNum>8</stageNum>
  <stages>
    <!-- stage 0 -->
    <_>
      <maxWeakCount>3</maxWeakCount>
      <stageThreshold>3.9786078035831451e-02</stageThreshold>
      <weakClassifiers>
        <_>
          <internalNodes>
            0 -1 0 -4.0314067155122757e-03</internalNodes>
          <leafValues>
            7.5539571046829224e-01 -9.5278245210647583e-01</leafValues></_>
        <_>
          <internalNodes>
            0 -1 17 7.3208182584494352e-05</internalNodes>
          <leafValues>
            -9.6617025136947632e-01 4.2665278911590576e-01</leafValues></_>
        <_>
          <internalNodes>
            0 -1 28 1.2939686421304941e-03</internalNodes>
          <leafValues>
            -6.6816586256027222e-01 5.6591576337814331e-01</leafValues></_></weakClassifiers></_>
    <!-- stage 1 -->
    <_>
      <maxWeakCount>1</maxWeakCount>
      <stageThreshold>6.1375129222869873e-01</stageThreshold>
      <weakClassifiers>
        <_>
          <internalNodes>
            0 -1 14 -2.4454755475744605e-04</internalNodes>
          <leafValues>
            6.1375129222869873e-01 -9.8104268312454224e-01</leafValues></_></weakClassifiers></_>
    <!-- stage 2 -->
    <_>
      <maxWeakCount>3</maxWeakCount>
      <stageThreshold>-1.1210018396377563e-01</stageThreshold>
      <weakClassifiers>
        <_>
          <internalNodes>
            0 -1 13 -3.9425911381840706e-03</internalNodes>
          <leafValues>
            -8.3908045291900635e-01 6.5921193361282349e-01</leafValues></_>
        <_>
          <internalNodes>
            0 -1 7 -4.4416700256988406e-04</internalNodes>
          <leafValues>
            -9.1778790950775146e-01 4.1239333152770996e-01</leafValues></_>
        <_>
          <internalNodes>
            0 -1 19 -2.5990715948864818e-04</internalNodes>
          <leafValues>
            -8.7956333160400391e-01 3.1458696722984314e-01</leafValues></_></weakClassifiers></_>
    <!-- stage 3 -->
    <_>
      <maxWeakCount>4</maxWeakCount>
      <stageThreshold>-9.0551571920514107e-03</stageThreshold>
      <weakClassifiers>
        <_>
          <internalNodes>
            0 -1 22 3.7513673305511475e-04</internalNodes>
          <leafValues>
            6.0750508308410645e-01 -9.2990654706954956e-01</leafValues></_>
        <_>
          <internalNodes>
            0 -1 23 -2.4690106511116028e-04</internalNodes>
          <leafValues>
            -9.6529322862625122e-01 3.6997139453887939e-01</leafValues></_>
        <_>
          <internalNodes>
            0 -1 25 -6.3795043388381600e-05</internalNodes>
          <leafValues>
            2.5793933868408203e-01 -8.9141482114791870e-01</leafValues></_>
        <_>
          <internalNodes>
            0 -1 10 -4.3679651571437716e-04</internalNodes>
          <leafValues>
            2.9294064640998840e-01 -9.8808473348617554e-01</leafValues></_></weakClassifiers></_>
    <!-- stage 4 -->
    <_>
      <maxWeakCount>5</maxWeakCount>
      <stageThreshold>-3.5383462905883789e-01</stageThreshold>
      <weakClassifiers>
        <_>
          <internalNodes>
            0 -1 5 -4.8983385786414146e-03</internalNodes>
          <leafValues>
            -8.8817203044891357e-01 6.2687337398529053e-01</leafValues></_>
        <_>
          <internalNodes>
            0 -1 1 -6.5258080139756203e-03</internalNodes>
          <leafValues>
            7.6383233070373535e-01 -4.2067956924438477e-01</leafValues></_>
        <_>
          <internalNodes>
            0 -1 8 -2.2048820028430782e-05</internalNodes>
          <leafValues>
            4.4391968846321106e-01 -7.3858213424682617e-01</leafValues></_>
        <_>
          <internalNodes>
            0 -1 21 -1.7684207705315202e-04</internalNodes>
          <leafValues>
            3.6232280731201172e-01 -9.6627908945083618e-01</leafValues></_>
        <_>
          <internalNodes>
            0 -1 15 5.4722419008612633e-04</internalNodes>
          <leafValues>
            1.4877447485923767e-01 -9.4059193134307861e-01</leafValues></_></weakClassifiers></_>
    <!-- stage 5 -->
    <_>
      <maxWeakCount>4</maxWeakCount>
      <stageThreshold>-7.8502178192138672e-01</stageThreshold>
      <weakClassifiers>
        <_>
          <internalNodes>
            0 -1 12 5.2895682165399194e-04</internalNodes>
          <leafValues>
            5.6586086750030518e-01 -9.3029493093490601e-01</leafValues></_>
        <_>
          <internalNodes>
            0 -1 24 4.4694854295812547e-05</internalNodes>
          <leafValues>
            -9.3432521820068359e-01 2.8213602304458618e-01</leafValues></_>
        <_>
          <internalNodes>
            0 -1 27 -3.2200553687289357e-04</internalNodes>
          <leafValues>
            3.2703882455825806e-01 -7.2682654857635498e-01</leafValues></_>
        <_>
          <internalNodes>
            0 -1 3 2.0579840056598186e-03</internalNodes>
          <leafValues>
            2.7698314189910889e-01 -9.0619212388992310e-01</leafValues></_></weakClassifiers></_>
    <!-- stage 6 -->
    <_>
      <maxWeakCount>4</maxWeakCount>
      <stageThreshold>-2.0437063276767731e-01</stageThreshold>
      <weakClassifiers>
        <_>
          <internalNodes>
            0 -1 11 -3.7873588735237718e-04</internalNodes>
          <leafValues>
            5.6427872180938721e-01 -9.6685081720352173e-01</leafValues></_>
        <_>
          <internalNodes>
            0 -1 18 -1.4288417296484113e-03</internalNodes>
          <leafValues>
            -9.2989414930343628e-01 2.6773497462272644e-01</leafValues></_>
        <_>
          <internalNodes>
            0 -1 20 -1.4644856855738908e-04</internalNodes>
          <leafValues>
            2.2724303603172302e-01 -9.1312599182128906e-01</leafValues></_>
        <_>
          <internalNodes>
            0 -1 26 2.3932210751809180e-04</internalNodes>
          <leafValues>
            2.6750218868255615e-01 -7.9197931289672852e-01</leafValues></_></weakClassifiers></_>
    <!-- stage 7 -->
    <_>
      <maxWeakCount>5</maxWeakCount>
      <stageThreshold>-6.5017837285995483e-01</stageThreshold>
      <weakClassifiers>
        <_>
          <internalNodes>
            0 -1 6 -2.9500923119485378e-03</internalNodes>
          <leafValues>
            6.8546366691589355e-01 -3.6567163467407227e-01</leafValues></_>
        <_>
          <internalNodes>
            0 -1 16 -1.9228839664719999e-04</internalNodes>
          <leafValues>
            -8.8549822568893433e-01 3.5774520039558411e-01</leafValues></_>
        <_>
          <internalNodes>
            0 -1 9 -7.1901793126016855e-04</internalNodes>
          <leafValues>
            -9.5553767681121826e-01 2.1876642107963562e-01</leafValues></_>
        <_>
          <internalNodes>
            0 -1 2 5.4625730263069272e-04</internalNodes>
          <leafValues>
            1.6584864258766174e-01 -9.0126955509185791e-01</leafValues></_>
        <_>
          <internalNodes>
            0 -1 4 -1.3507285621017218e-03</internalNodes>
          <leafValues>
            1.6341999173164368e-01 -9.0711337327957153e-01</leafValues></_></weakClassifiers></_></stages>
  <features>
    <_>
      <rects>
        <_>
          7 10 6 3 -1.</_>
        <_>
          10 10 3 3 2.</_></rects>
      <tilted>0</tilted></_>
    <_>
      <rects>
        <_>
          8 4 2 4 -1.</_>
        <_>
          8 6 2 2 2.</_></rects>
      <tilted>0</tilted></_>
    <_>
      <rects>
        <_>
          8 11 2 4 -1.</_>
        <_>
          8 13 2 2 2.</_></rects>
      <tilted>0</tilted></_>
    <_>
      <rects>
        <_>
          8 11 3 6 -1.</_>
        <_>
          8 13 3 2 3.</_></rects>
      <tilted>0</tilted></_>
    <_>
      <rects>
        <_>
          8 13 4 3 -1.</_>
        <_>
          10 13 2 3 2.</_></rects>
      <tilted>0</tilted></_>
    <_>
      <rects>
        <_>
          8 13 6 1 -1.</_>
        <_>
          11 13 3 1 2.</_></rects>
      <tilted>0</tilted></_>
    <_>
      <rects>
        <_>
          9 5 2 6 -1.</_>
        <_>
          9 7 2 2 3.</_></rects>
      <tilted>0</tilted></_>
    <_>
      <rects>
        <_>
          9 9 2 6 -1.</_>
        <_>
          9 11 2 2 3.</_></rects>
      <tilted>0</tilted></_>
    <_>
      <rects>
        <_>
          9 11 3 3 -1.</_>
        <_>
          10 11 1 3 3.</_></rects>
      <tilted>0</tilted></_>
    <_>
      <rects>
        <_>
          9 11 3 6 -1.</_>
        <_>
          9 13 3 2 3.</_></rects>
      <tilted>0</tilted></_>
    <_>
      <rects>
        <_>
          9 12 6 2 -1.</_>
        <_>
          11 12 2 2 3.</_></rects>
      <tilted>0</tilted></_>
    <_>
      <rects>
        <_>
          9 13 6 2 -1.</_>
        <_>
          11 13 2 2 3.</_></rects>
      <tilted>0</tilted></_>
    <_>
      <rects>
        <_>
          9 14 4 2 -1.</_>
        <_>
          9 15 4 1 2.</_></rects>
      <tilted>0</tilted></_>
    <_>
      <rects>
        <_>
          10 12 2 6 -1.</_>
        <_>
          11 12 1 6 2.</_></rects>
      <tilted>0</tilted></_>
    <_>
      <rects>
        <_>
          10 13 2 4 -1.</_>
        <_>
          11 13 1 4 2.</_></rects>
      <tilted>0</tilted></_>
    <_>
      <rects>
        <_>
          10 13 4 3 -1.</_>
        <_>
          10 14 4 1 3.</_></rects>
      <tilted>0</tilted></_>
    <_>
      <rects>
        <_>
          10 14 4 2 -1.</_>
        <_>
          10 15 4 1 2.</_></rects>
      <tilted>0</tilted></_>
    <_>
      <rects>
        <_>
          11 9 1 6 -1.</_>
        <_>
          11 12 1 3 2.</_></rects>
      <tilted>0</tilted></_>
    <_>
      <rects>
        <_>
          11 11 2 4 -1.</_>
        <_>
          12 11 1 4 2.</_></rects>
      <tilted>0</tilted></_>
    <_>
      <rects>
        <_>
          11 12 1 6 -1.</_>
        <_>
          11 14 1 2 3.</_></rects>
      <tilted>0</tilted></_>
    <_>
      <rects>
        <_>
          11 12 2 3 -1.</_>
        <_>
          12 12 1 3 2.</_></rects>
      <tilted>0</tilted></_>
    <_>
      <rects>
        <_>
          11 13 2 3 -1.</_>
        <_>
          12 13 1 3 2.</_></rects>
      <tilted>0</tilted></_>
    <_>
      <rects>
        <_>
          11 13 2 2 -1.</_>
        <_>
          11 14 2 1 2.</_></rects>
      <tilted>0</tilted></_>
    <_>
      <rects>
        <_>
          11 13 3 2 -1.</_>
        <_>
          11 14 3 1 2.</_></rects>
      <tilted>0</tilted></_>
    <_>
      <rects>
        <_>
          12 9 1 8 -1.</_>
        <_>
          12 13 1 4 2.</_></rects>
      <tilted>0</tilted></_>
    <_>
      <rects>
        <_>
          12 12 2 2 -1.</_>
        <_>
          13 12 1 2 2.</_></rects>
      <tilted>0</tilted></_>
    <_>
      <rects>
        <_>
          12 13 1 4 -1.</_>
        <_>
          12 15 1 2 2.</_></rects>
      <tilted>0</tilted></_>
    <_>
      <rects>
        <_>
          13 12 3 1 -1.</_>
        <_>
          14 12 1 1 3.</_></rects>
      <tilted>0</tilted></_>
    <_>
      <rects>
        <_>
          14 11 2 3 -1.</_>
        <_>
          15 11 1 3 2.</_></rects>
      <tilted>0</tilted></_></features></cascade>
</opencv_storage>
